106229.046800912,106229.04683507,106229.046869243,106229.04690343,106229.046937632,106229.046971848,106229.047006079,106229.047040324,106229.047074583,106229.047108857,106229.047143146,106229.047177449,106229.047211766,106229.047246098,194340.448005467,194340.445429671,194340.442853812,194340.440277888,194340.4377019,194340.435125848,194340.432549731,194340.429973551,194340.427397306,194340.424820998,194340.422244625,194340.419668188,194340.417091687,194340.414515122,194340.411938493,194340.4093618,194340.406785042,194340.404208221,194340.401631336,194340.399054386,194340.396477373,194340.393900296,194340.391323154,194340.388745949,106229.048109098,106229.048143806,106229.048178529,106229.048213266,106229.048248017,106229.048282783,106229.048317564,106229.048352359,106229.048387168,106229.048421992,106229.04845683,106229.048491683,106229.048526551,106229.048561432,106229.048596329,106229.048631239,106229.048666164,106229.048701104,106229.048736058,106229.048771027,106229.04880601,106229.048841007,106229.048876019,106229.048911046,106229.048946086,106229.048981142,106229.049016212,106229.049051296,106229.049086395,106229.049121508,106229.049156636,106229.049191778,106229.049226935,106229.049262106,106229.049297291,106229.049332491,106229.049367706,106229.049402935,106229.049438178,106229.049473436,106229.049508709,106229.049543996
194340.484059856,194340.481484961,194340.478910001,194340.476334976,194340.473759888,194340.471184735,194340.468609518,194340.466034236,194340.46345889,194340.46088348,194340.458308006,194340.455732467,194340.453156865,194340.450581198,213594.283502335,213594.284170733,213594.284839049,213594.285507281,213594.28617543,213594.286843497,213594.287511481,213594.288179382,213594.2888472,213594.289514935,213594.290182588,213594.290850157,213594.291517644,213594.292185048,213594.29285237,213594.293519608,213594.294186764,213594.294853837,213594.295520827,213594.296187734,213594.296854559,213594.297521301,213594.29818796,213594.298854537,194340.38616868,194340.383591346,194340.381013949,194340.378436488,194340.375858963,194340.373281373,194340.37070372,194340.368126004,194340.365548223,194340.362970378,194340.36039247,194340.357814497,194340.355236461,194340.352658361,194340.350080197,194340.347501969,194340.344923677,194340.342345322,194340.339766903,194340.33718842,194340.334609873,194340.332031262,194340.329452588,194340.32687385,194340.324295048,194340.321716182,194340.319137253,194340.31655826,194340.313979204,194340.311400083,194340.308820899,194340.306241651,194340.30366234,194340.301082965,194340.298503526,194340.295924024,194340.293344458,194340.290764829,194340.288185136,194340.285605379,194340.283025559,194340.280445675
213594.274136059,213594.274805617,213594.275475093,213594.276144486,213594.276813796,213594.277483023,213594.278152167,213594.278821228,213594.279490207,213594.280159102,213594.280827914,213594.281496644,213594.282165291,213594.282833854,12042.0025623398,12041.9995838068,12041.9966053852,12041.9936270747,12041.9906488755,12041.9876707873,12041.9846928104,12041.9817149446,12041.9787371898,12041.9757595462,12041.9727820136,12041.969804592,12041.9668272815,12041.9638500819,12041.9608729933,12041.9578960157,12041.954919149,12041.9519423932,12041.9489657483,12041.9459892142,12041.943012791,12041.9400364786,12041.937060277,12041.9340841861,213594.29952103,213594.300187441,213594.30085377,213594.301520015,213594.302186178,213594.302852258,213594.303518256,213594.30418417,213594.304850003,213594.305515752,213594.306181419,213594.306847003,213594.307512504,213594.308177923,213594.308843259,213594.309508512,213594.310173683,213594.310838771,213594.311503777,213594.3121687,213594.31283354,213594.313498298,213594.314162973,213594.314827566,213594.315492076,213594.316156503,213594.316820848,213594.31748511,213594.31814929,213594.318813387,213594.319477401,213594.320141333,213594.320805183,213594.32146895,213594.322132634,213594.322796236,213594.323459756,213594.324123192,213594.324786547,213594.325449819,213594.326113008,213594.326776115
12042.0442734921,12042.0412933997,12042.0383134187,12042.0353335493,12042.0323537914,12042.029374145,12042.02639461,12042.0234151864,12042.0204358743,12042.0174566735,12042.0144775841,12042.0114986061,12042.0085197393,12042.0055409839,201978.71782355,201978.718874246,201978.719924794,201978.720975195,201978.722025449,201978.723075555,201978.724125514,201978.725175326,201978.726224991,201978.727274508,201978.728323878,201978.7293731,201978.730422175,201978.731471103,201978.732519883,201978.733568516,201978.734617001,201978.735665339,201978.73671353,201978.737761573,201978.738809469,201978.739857217,201978.740904818,201978.741952271,12041.931108206,12041.9281323367,12041.925156578,12041.9221809301,12041.9192053928,12041.9162299661,12041.9132546501,12041.9102794447,12041.9073043498,12041.9043293655,12041.9013544917,12041.8983797285,12041.8954050757,12041.8924305334,12041.8894561015,12041.8864817801,12041.8835075691,12041.8805334684,12041.8775594781,12041.8745855981,12041.8716118285,12041.8686381691,12041.86566462,12041.8626911812,12041.8597178526,12041.8567446341,12041.8537715259,201978.771221057,12041.8478256399,12041.844852862,12041.8418801943,12041.8389076366,12041.835935189,12041.8329628514,12041.8299906238,12041.8270185062,12041.8240464986,12041.8210746008,12041.8181028131,12041.8151311352,12041.8121595671,12041.809188109
201978.703098349,201978.704151106,201978.705203716,201978.706256178,201978.707308493,201978.708360662,201978.709412683,201978.710464556,201978.711516283,201978.712567862,201978.713619294,201978.714670579,201978.715721717,201978.716772707,-24027.4353783849,-24027.4332141145,-24027.4310498414,-24027.4288855655,-24027.426721287,-24027.4245570057,-24027.4223927219,-24027.4202284354,-24027.4180641463,-24027.4158998546,-24027.4137355604,-24027.4115712637,-24027.4094069645,-24027.4072426628,-24027.4050783586,-24027.4029140521,-24027.4007497431,-24027.3985854318,-24027.3964211182,-24027.3942568022,-24027.3920924839,-24027.3899281634,-24027.3877638406,-24027.3855995156,201978.742999577,201978.744046735,201978.745093746,201978.746140609,201978.747187325,201978.748233894,201978.749280314,201978.750326588,201978.751372713,201978.752418691,201978.753464522,201978.754510205,201978.755555741,201978.756601128,201978.757646369,201978.758691461,201978.759736406,201978.760781204,201978.761825854,201978.762870356,201978.76391471,201978.764958917,201978.766002976,201978.767046888,201978.768090652,201978.769134268,201978.770177737,-24027.3249976204,201978.77226423,201978.773307256,201978.774350133,201978.775392863,201978.776435445,201978.77747788,201978.778520166,201978.779562305,201978.780604296,201978.78164614,201978.782687835,201978.783729383,201978.784770783,201978.785812035
-24027.4656778671,-24027.4635136379,-24027.4613494056,-24027.4591851702,-24027.4570209317,-24027.4548566903,-24027.4526924458,-24027.4505281983,-24027.4483639479,-24027.4461996946,-24027.4440354383,-24027.4418711792,-24027.4397069173,-24027.4375426525,5501.77275999155,5501.77551376187,5501.77826749021,5501.78102117657,5501.78377482097,5501.78652842343,5501.78928198397,5501.79203550259,5501.79478897931,5501.79754241416,5501.80029580714,5501.80304915827,5501.80580246756,5501.80855573504,5501.81130896072,5501.81406214461,5501.81681528672,5501.81956838709,5501.82232144571,5501.82507446262,5501.82782743781,5501.83058037131,5501.83333326314,5501.8360861133,-24027.3834351884,-24027.3812708591,-24027.3791065276,-24027.376942194,-24027.3747778583,-24027.3726135206,-24027.3704491808,-24027.368284839,-24027.3661204953,-24027.3639561495,-24027.3617918019,-24027.3596274523,-24027.3574631008,-24027.3552987475,-24027.3531343924,-24027.3509700354,-24027.3488056767,-24027.3466413162,-24027.344476954,-24027.3423125901,-24027.3401482245,-24027.3379838572,-24027.3358194883,-24027.3336551178,-24027.3314907458,-24027.3293263722,-24027.327161997,5501.91314906778,-24027.3228332423,-24027.3206688627,-24027.3185044817,-24027.3163400993,-24027.3141757156,-24027.3120113304,-24027.309846944,-24027.3076825563,-24027.3055181673,-24027.303353777,-24027.3011893856,-24027.2990249929,-24027.2968605991,-24027.2946962041
5501.73420278922,5501.73695714906,5501.73971146669,5501.74246574212,5501.74521997538,5501.74797416647,5501.75072831541,5501.75348242223,5501.75623648692,5501.75899050952,5501.76174449003,5501.76449842848,5501.76725232487,5501.77000617922,-121571.458940166,-121571.460303461,-121571.461666756,-121571.463030051,-121571.464393346,-121571.465756641,-121571.467119937,-121571.468483232,-121571.469846527,-121571.471209822,-121571.472573117,-121571.473936412,-121571.475299707,-121571.476663002,-121571.478026297,-121571.479389592,-121571.480752887,-121571.482116182,-121571.483479477,-121571.484842772,-121571.486206067,-121571.487569363,-121571.488932658,-121571.490295953,5501.83883892182,5501.84159168872,5501.84434441401,5501.8470970977,5501.84984973982,5501.85260234037,5501.85535489936,5501.85810741683,5501.86085989277,5501.86361232721,5501.86636472016,5501.86911707163,5501.87186938165,5501.87462165023,5501.87737387738,5501.88012606313,5501.88287820748,5501.88563031044,5501.88838237205,5501.89113439231,5501.89388637124,5501.89663830886,5501.89939020517,5501.9021420602,5501.90489387396,5501.90764564646,5501.91039737773,-121571.528468214,5501.91590071662,5501.91865232428,5501.92140389075,5501.92415541607,5501.92690690024,5501.92965834329,5501.93240974522,5501.93516110605,5501.9379124258,5501.94066370449,5501.94341494213,5501.94616613874,5501.94891729433,5501.95166840891
-121571.439854035,-121571.44121733,-121571.442580625,-121571.44394392,-121571.445307215,-121571.446670511,-121571.448033806,-121571.449397101,-121571.450760396,-121571.452123691,-121571.453486986,-121571.454850281,-121571.456213576,-121571.457576871,869.224282279865,869.223736960603,869.223191641341,869.222646322079,869.222101002816,869.221555683554,869.221010364293,869.220465045032,869.219919725771,869.21937440651,869.21882908725,869.218283767989,869.21773844873,869.21719312947,869.216647810211,869.216102490952,869.215557171693,869.215011852434,869.214466533175,869.213921213917,869.213375894659,869.212830575402,869.212285256144,869.211739936888,-121571.491659248,-121571.493022543,-121571.494385838,-121571.495749133,-121571.497112428,-121571.498475723,-121571.499839018,-121571.501202313,-121571.502565608,-121571.503928903,-121571.505292198,-121571.506655493,-121571.508018788,-121571.509382084,-121571.510745379,-121571.512108674,-121571.513471969,-121571.514835264,-121571.516198559,-121571.517561854,-121571.518925149,-121571.520288444,-121571.521651739,-121571.523015034,-121571.524378329,-121571.525741624,-121571.527104919,869.196470997768,-121571.529831509,-121571.531194804,-121571.5325581,-121571.533921395,-121571.53528469,-121571.536647985,-121571.53801128,-121571.539374575,-121571.54073787,-121571.542101165,-121571.54346446,-121571.544827755,-121571.54619105,-121571.547554345
869.231916749574,869.231371430308,869.230826111041,869.230280791775,869.229735472509,869.229190153243,869.228644833978,869.228099514712,869.227554195448,869.227008876183,869.226463556919,869.225918237655,869.225372918391,869.224827599128,18398.0816459968,18398.0819186571,18398.0821913173,18398.0824639776,18398.0827366378,18398.0830092981,18398.0832819583,18398.0835546186,18398.0838272788,18398.0840999391,18398.0843725993,18398.0846452596,18398.0849179198,18398.0851905801,18398.0854632403,18398.0857359005,18398.0860085608,18398.0862812211,18398.0865538813,18398.0868265415,18398.0870992018,18398.087371862,18398.0876445223,18398.0879171825,869.21119461763,869.210649298373,869.210103979115,869.209558659858,869.209013340601,869.208468021344,869.207922702087,869.207377382831,869.206832063575,869.206286744319,869.205741425064,869.205196105809,869.204650786555,869.204105467301,869.203560148047,869.203014828793,869.202469509539,869.201924190286,869.201378871033,869.20083355178,869.200288232528,869.199742913275,869.199197594023,869.198652274771,869.19810695552,869.197561636269,869.197016317018,18398.0955516695,869.195925678517,869.195380359267,869.194835040018,869.194289720768,869.193744401519,869.19319908227,869.192653763022,869.192108443773,869.191563124525,869.191017805277,869.190472486029,869.189927166782,869.189381847535,869.188836528288
18398.0778287533,18398.0781014136,18398.0783740738,18398.0786467341,18398.0789193943,18398.0791920546,18398.0794647148,18398.0797373751,18398.0800100353,18398.0802826956,18398.0805553558,18398.0808280161,18398.0811006763,18398.0813733366,-75789.0995985278,-75789.1006891647,-75789.1017798016,-75789.1028704385,-75789.1039610754,-75789.1050517123,-75789.1061423491,-75789.107232986,-75789.1083236229,-75789.1094142598,-75789.1105048967,-75789.1115955336,-75789.1126861705,-75789.1137768074,-75789.1148674442,-75789.1159580811,-75789.117048718,-75789.1181393549,-75789.1192299918,-75789.1203206287,-75789.1214112656,-75789.1225019025,-75789.1235925393,-75789.1246831762,18398.0881898428,18398.088462503,18398.0887351633,18398.0890078235,18398.0892804838,18398.089553144,18398.0898258043,18398.0900984645,18398.0903711248,18398.090643785,18398.0909164453,18398.0911891055,18398.0914617658,18398.091734426,18398.0920070863,18398.0922797465,18398.0925524067,18398.092825067,18398.0930977272,18398.0933703875,-75789.1475865508,18398.093915708,18398.0941883682,18398.0944610285,18398.0947336887,18398.095006349,18398.0952790092,-75789.155221009,18398.0958243297,18398.09609699,18398.0963696502,18398.0966423105,18398.0969149707,18398.097187631,18398.0974602912,18398.0977329515,18398.0980056117,18398.098278272,18398.0985509322,18398.0988235925,18398.0990962527,18398.0993689129
-75789.0843296114,-75789.0854202483,-75789.0865108852,-75789.0876015221,-75789.088692159,-75789.0897827959,-75789.0908734328,-75789.0919640696,-75789.0930547065,-75789.0941453434,-75789.0952359803,-75789.0963266172,-75789.0974172541,-75789.0985078909,28351.0955190225,28351.0960643419,28351.0966096613,28351.0971549807,28351.0977003001,28351.0982456194,28351.0987909388,28351.0993362582,28351.0998815776,28351.100426897,28351.1009722163,28351.1015175357,28351.1020628551,28351.1026081745,28351.1031534939,28351.1036988132,28351.1042441326,28351.104789452,28351.1053347714,28351.1058800908,28351.1064254101,28351.1069707295,28351.1075160489,28351.1080613683,-75789.1257738131,-75789.12686445,-75789.1279550869,-75789.1290457238,-75789.1301363607,-75789.1312269975,-75789.1323176344,-75789.1334082713,-75789.1344989082,-75789.1355895451,-75789.136680182,-75789.1377708189,-75789.1388614558,-75789.1399520926,-75789.1410427295,-75789.1421333664,-75789.1432240033,-75789.1443146402,-75789.145405277,-75789.1464959139,28351.1195130752,-75789.1486771877,-75789.1497678246,-75789.1508584615,-75789.1519490983,-75789.1530397352,-75789.1541303721,28351.1233303109,-75789.1563116459,-75789.1574022828,-75789.1584929197,-75789.1595835565,-75789.1606741934,-75789.1617648303,-75789.1628554672,-75789.1639461041,-75789.165036741,-75789.1661273779,-75789.1672180148,-75789.1683086516,-75789.1693992885,-75789.1704899254
28351.0878845512,28351.0884298706,28351.08897519,28351.0895205094,28351.0900658287,28351.0906111481,28351.0911564675,28351.0917017869,28351.0922471063,28351.0927924256,28351.093337745,28351.0938830644,28351.0944283838,28351.0949737032,-12807.3469247331,-12807.3471044252,-12807.3472841132,-12807.3474637971,-12807.3476434771,-12807.347823153,-12807.3480028249,-12807.3481824928,-12807.3483621566,-12807.3485418164,-12807.3487214722,-12807.348901124,-12807.3490807717,-12807.3492604154,-12807.3494400551,-12807.3496196908,-12807.3497993224,-12807.34997895,-12807.3501585736,-12807.3503381932,-12807.3505178087,-12807.3506974202,-12807.3508770276,-12807.3510566311,28351.1086066877,28351.109152007,28351.1096973264,28351.1102426458,28351.1107879652,28351.1113332846,28351.111878604,28351.1124239233,28351.1129692427,28351.1135145621,28351.1140598815,28351.1146052008,28351.1151505202,28351.1156958396,28351.116241159,28351.1167864784,28351.1173317977,28351.1178771171,28351.1184224365,28351.1189677559,-12807.3548273732,28351.1200583946,28351.120603714,28351.1211490334,28351.1216943528,28351.1222396721,28351.1227849915,-12807.3560838927,28351.1238756303,28351.1244209497,28351.124966269,28351.1255115884,28351.1260569078,28351.1266022272,28351.1271475465,28351.1276928659,28351.1282381853,28351.1287835047,28351.1293288241,28351.1298741434,28351.1304194628,28351.1309647822
-12807.344408622,-12807.3445883704,-12807.3447681147,-12807.3449478551,-12807.3451275914,-12807.3453073237,-12807.345487052,-12807.3456667762,-12807.3458464964,-12807.3460262126,-12807.3462059248,-12807.3463856329,-12807.346565337,-12807.3467450371,-63730.3167140881,-63730.3174877508,-63730.3182614103,-63730.3190350666,-63730.3198087196,-63730.3205823693,-63730.3213560157,-63730.3221296589,-63730.3229032988,-63730.3236769354,-63730.3244505688,-63730.3252241989,-63730.3259978258,-63730.3267714494,-63730.3275450697,-63730.3283186867,-63730.3290923006,-63730.3298659111,-63730.3306395184,-63730.3314131224,-63730.3321867231,-63730.3329603206,-63730.3337339149,-63730.3345075058,-12807.3512362305,-12807.3514158259,-12807.3515954173,-12807.3517750046,-12807.3519545879,-12807.3521341672,-12807.3523137425,-12807.3524933137,-12807.3526728809,-12807.3528524441,-12807.3530320032,-12807.3532115583,-12807.3533911094,-12807.3535706565,-12807.3537501996,-12807.3539297386,-12807.3541092736,-12807.3542888045,-12807.3544683315,-12807.3546478544,-63730.3507521641,-12807.3550068881,-12807.3551863989,-12807.3553659057,-12807.3555454085,-12807.3557249073,-12807.355904402,-63730.3561667314,-12807.3562633793,-12807.356442862,-12807.3566223406,-12807.3568018152,-12807.3569812857,-12807.3571607523,-12807.3573402148,-12807.3575196732,-12807.3576991277,-12807.3578785781,-12807.3580580245,-12807.3582374669,-12807.3584169052,-12807.3585963395
-63730.3058824658,-63730.3066561743,-63730.3074298796,-63730.3082035817,-63730.3089772804,-63730.3097509759,-63730.3105246681,-63730.3112983571,-63730.3120720427,-63730.3128457251,-63730.3136194043,-63730.3143930801,-63730.3151667527,-63730.315940422,-245653.257136392,-245653.260227229,-245653.263318064,-245653.266408896,-245653.269499727,-245653.272590555,-245653.275681381,-245653.278772204,-245653.281863025,-245653.284953844,-245653.288044661,-245653.291135475,-245653.294226287,-245653.297317097,-245653.300407904,-245653.30349871,-245653.306589512,-245653.309680313,-245653.312771111,-245653.315861907,-245653.318952701,-245653.322043493,-245653.325134282,-245653.328225069,-63730.3352810935,-63730.336054678,-63730.3368282592,-63730.3376018371,-63730.3383754118,-63730.3391489832,-63730.3399225514,-63730.3406961163,-63730.341469678,-63730.3422432364,-63730.3430167915,-63730.3437903434,-63730.3445638921,-63730.3453374375,-63730.3461109796,-63730.3468845185,-63730.3476580541,-63730.3484315865,-63730.3492051156,-63730.3499786414,-245653.393131064,-63730.3515256835,-63730.3522991996,-63730.3530727124,-63730.3538462221,-63730.3546197284,-63730.3553932316,-245653.414766173,-63730.3569402281,-63730.3577137215,-63730.3584872116,-63730.3592606985,-63730.3600341821,-63730.3608076625,-63730.3615811397,-63730.3623546136,-63730.3631280843,-63730.3639015517,-63730.3646750159,-63730.3654484768,-63730.3662219345,-63730.366995389
-245653.21386443,-245653.216955299,-245653.220046166,-245653.223137031,-245653.226227893,-245653.229318754,-245653.232409611,-245653.235500467,-245653.23859132,-245653.241682171,-245653.24477302,-245653.247863866,-245653.25095471,-245653.254045552,-116786.316862322,-116786.329125219,-116786.341388112,-116786.353651,-116786.365913885,-116786.378176766,-116786.390439642,-116786.402702515,-116786.414965383,-116786.427228247,-116786.439491107,-116786.451753963,-116786.464016814,-116786.476279662,-116786.488542506,-116786.500805345,-116786.51306818,-116786.525331011,-116786.537593839,-116786.549856661,-116786.56211948,-116786.574382295,-116786.586645106,-116786.598907912,-245653.331315853,-245653.334406635,-245653.337497415,-245653.340588193,-245653.343678969,-245653.346769742,-245653.349860513,-245653.352951281,-245653.356042047,-245653.359132811,-245653.362223573,-245653.365314332,-245653.36840509,-245653.371495844,-245653.374586597,-245653.377677347,-245653.380768095,-245653.383858841,-245653.386949584,-245653.390040326,-116786.856425899,-245653.396221801,-245653.399312535,-245653.402403267,-245653.405493997,-245653.408584725,-245653.41167545,-116786.942264825,-245653.417856893,-245653.420947611,-245653.424038327,-245653.427129041,-245653.430219753,-245653.433310462,-245653.436401169,-245653.439491873,-245653.442582576,-245653.445673276,-245653.448763973,-245653.451854669,-245653.454945362,-245653.458036053
-116786.14518133,-116786.157444285,-116786.169707235,-116786.181970182,-116786.194233124,-116786.206496062,-116786.218758996,-116786.231021927,-116786.243284852,-116786.255547774,-116786.267810692,-116786.280073606,-116786.292336515,-116786.30459942,16.9340712686034,16.9362524250402,16.938433303939,16.9406139052893,16.9427942290768,16.9449742752866,16.9471540439035,16.9493335349127,16.9515127483001,16.9536916840495,16.9558703421481,16.9580487225834,16.9602268253392,16.9624046504025,16.9645821977587,16.9667594673953,16.9689364592958,16.9711131734486,16.9732896098378,16.9754657684492,16.9776416492688,16.97981725228,16.9819925774747,16.9841676248294,-116786.611170714,-116786.623433513,-116786.635696307,-116786.647959097,-116786.660221883,-116786.672484665,-116786.684747442,-116786.697010216,-116786.709272986,-116786.721535751,-116786.733798512,-116786.746061269,-116786.758324022,-116786.770586771,-116786.782849516,-116786.795112257,-116786.807374993,-116786.819637726,-116786.831900454,-116786.844163179,17.0297794143723,-116786.868688615,-116786.880951327,-116786.893214035,-116786.905476738,-116786.917739438,-116786.930002134,17.0449560922853,-116786.954527512,-116786.966790196,-116786.979052875,-116786.99131555,-116787.003578221,-116787.015840888,-116787.02810355,-116787.040366209,-116787.052628864,-116787.064891514,-116787.07715416,-116787.089416802,-116787.101679441,-116787.113942075
16.9035059451967,16.9056909856377,16.9078757487422,16.9100602344963,16.9122444428858,16.914428373897,16.9166120275174,16.9187954037308,16.9209785025219,16.9231613238764,16.9253438677799,16.9275261342194,16.9297081231791,16.9318898346454,-971.161912965889,-971.15836590812,-971.154818686584,-971.151271301296,-971.147723752274,-971.144176039536,-971.140628163102,-971.13708012299,-971.133531919217,-971.129983551802,-971.126435020761,-971.122886326111,-971.119337467875,-971.115788446062,-971.112239260694,-971.10868991179,-971.105140399367,-971.101590723417,-971.098040884022,-971.094490881196,-971.090940714944,-14.3003692172796,-14.3003578224779,-14.3003464273521,16.9863423943429,16.9885168859905,16.9906910997601,16.9928650356379,16.9950386936105,16.9972120736631,16.9993851757809,17.001557999951,17.0037305461584,17.0059028143867,17.0080748046258,17.0102465168589,17.0124179510718,17.0145891072507,17.0167599853823,17.0189305854516,17.0211009074453,17.0232709513487,17.0254407171466,17.0276102048255,-971.005687734355,17.0319483457725,17.0341169990113,17.0362853740738,17.0384534709467,17.0406212896145,17.0427888300659,-970.980804584663,17.0471230762593,17.0492897819732,17.0514562094108,17.0536223585593,17.0557882294051,17.0579538219346,17.0601191361323,17.0622841719848,17.064448929476,17.0666134085925,17.0687776093205,17.0709415316452,17.0731051755533,17.0752685410298
-971.21155456915,-971.208009805991,-971.204464878816,-971.200919787643,-971.197374532491,-971.193829113373,-971.190283530306,-971.186737783311,-971.183191872408,-971.179645797614,-971.176099558946,-971.172553156421,-971.169006590059,-971.165459859875,-14.3006084331563,-14.3005970451733,-14.3005856568651,-14.3005742682315,-14.3005628792728,-14.300551489989,-14.30054010038,-14.3005287104461,-14.3005173201872,-14.3005059296035,-14.3004945386949,-14.3004831474616,-14.3004717559036,-14.3004603640209,-14.3004489718137,-14.3004375792819,-14.3004261864257,-14.300414793245,-14.30040339974,-14.3003920059107,-14.3003806117573,58723.9659322408,58723.9567376635,58723.9475430814,-14.3003350319023,-14.3003236361286,-14.3003122400311,-14.3003008436097,-14.3002894468646,-14.3002780497958,-14.3002666524034,-14.3002552546874,-14.300243856648,-971.044773686971,-971.041221234171,-971.037668618106,-971.034115838982,-971.030562896731,-971.027009791363,-971.023456522865,-971.019903091287,-971.016349496626,-971.012795738905,-971.009241818142,-14.3001070549643,-971.00213348756,-970.998579077778,-970.995024505024,-970.991469769319,-970.987914870681,-970.984359809123,-14.3000272325154,-970.977249197319,-970.973693647111,-970.970137934058,-970.966582058176,-970.963026019479,-970.959469817984,-970.955913453711,-970.952356926682,-970.94880023691,-970.945243384418,-970.941686369221,-970.938129191338,-970.934571850785,-970.93101434758
-14.3007678307265,-14.3007564473043,-14.3007450635558,-14.3007336794813,-14.3007222950807,-14.3007109103542,-14.3006995253017,-14.3006881399234,-14.3006767542193,-14.3006653681894,-14.3006539818339,-14.3006425951528,-14.3006312081461,-14.3006198208139,58724.1590172402,58724.1498227651,58724.1406282852,58724.1314338004,58724.1222393108,58724.1130448162,58724.1038503168,58724.0946558124,58724.0854613032,58724.0762667892,58724.0670722702,58724.0578777464,58724.0486832178,58724.0394886842,58724.0302941458,58724.0210996025,58724.0119050544,58724.0027105014,58723.9935159435,58723.9843213808,58723.9751268133,94100.719602563,94100.7274389347,94100.7352752874,58723.9383484944,58723.9291539026,58723.9199593059,58723.9107647043,58723.9015700978,58723.8923754866,58723.8831808705,58723.8739862495,58723.8647916237,-14.3002324582851,-14.3002210595989,-14.3002096605893,-14.3001982612565,-14.3001868616005,-14.3001754616214,-14.3001640613192,-14.300152660694,-14.3001412597458,-14.3001298584748,-14.3001184568809,58723.7544557377,-14.3000956527249,-14.3000842501629,-14.3000728472784,-14.3000614440713,-14.3000500405417,-14.3000386366897,58723.6900928172,-14.3000158280188,-14.3000044232,-14.299993018059,-14.2999816125959,-14.2999702068108,-14.2999588007037,-14.2999473942747,-14.2999359875238,-14.2999245804512,-14.2999131730568,-14.2999017653407,-14.299890357303,-14.2998789489438,-14.299867540263
58724.2877393766,58724.2785449702,58724.2693505588,58724.2601561425,58724.2509617214,58724.2417672953,58724.2325728643,58724.2233784284,58724.2141839876,58724.2049895419,58724.1957950914,58724.1866006359,58724.1774061755,58724.1682117103,94100.5550343967,94100.5628711648,94100.570707914,94100.5785446443,94100.5863813558,94100.5942180484,94100.6020547222,94100.609891377,94100.617728013,94100.6255646302,94100.6334012284,94100.6412378078,94100.6490743683,94100.6569109098,94100.6647474326,94100.6725839365,94100.6804204214,94100.6882568875,94100.6960933347,94100.703929763,94100.7117661724,7485.26461339407,7485.27409976368,7485.28358608447,94100.7431116213,94100.7509479363,94100.7587842324,94100.7666205096,94100.7744567679,94100.7822930073,94100.7901292278,94100.7979654294,94100.8058016122,58723.8555969931,58723.8464023577,58723.8372077174,58723.8280130723,58723.8188184223,58723.8096237676,58723.800429108,58723.7912344436,58723.7820397743,58723.7728451003,58723.7636504214,94100.8998343305,58723.7452610492,58723.7360663559,58723.7268716578,58723.7176769548,58723.7084822471,58723.6992875346,94100.9546854923,58723.6808980951,58723.6717033681,58723.6625086363,58723.6533138998,58723.6441191585,58723.6349244123,58723.6257296614,58723.6165349057,58723.6073401452,58723.5981453799,58723.5889506099,58723.579755835,58723.5705610554,58723.561366271
94100.4453176626,94100.4531546948,94100.4609917081,94100.4688287025,94100.4766656781,94100.4845026349,94100.4923395727,94100.5001764917,94100.5080133919,94100.5158502732,94100.5236871356,94100.5315239792,94100.5393608039,94100.5471976097,7485.06538835264,7485.07487574791,7485.08436309431,7485.09385039184,7485.1033376405,7485.1128248403,7485.12231199124,7485.13179909331,7485.14128614653,7485.15077315089,7485.16026010641,7485.16974701308,7485.1792338709,7485.18872067989,7485.19820744004,7485.20769415137,7485.21718081386,7485.22666742754,7485.23615399239,7485.24564050843,7485.25512697566,-84986.7666382198,-84986.7721988524,-84986.777759515,7485.29307235649,7485.30255857971,7485.31204475417,7485.32153087986,7485.33101695677,7485.3405029849,7485.34998896425,7485.35947489483,7485.36896077664,94100.813637776,94100.8214739209,94100.8293100469,94100.8371461541,94100.8449822423,94100.8528183116,94100.860654362,94100.8684903935,94100.8763264061,94100.8841623998,94100.8919983746,7485.48278755553,94100.9076702675,94100.9155061856,94100.9233420847,94100.931177965,94100.9390138263,94100.9468496687,7485.54918326938,94100.9625212968,94100.9703570825,94100.9781928493,94100.9860285971,94100.993864326,94101.001700036,94101.0095357271,94101.0173713993,94101.0252070526,94101.0330426869,94101.0408783023,94101.0487138988,94101.0565494764,94101.064385035
7484.93255968435,7484.94204776432,7484.95153579536,7484.96102377747,7484.97051171067,7484.97999959495,7484.98948743031,7484.99897521675,7485.00846295429,7485.01795064292,7485.02743828265,7485.03692587348,7485.04641341542,7485.05590090847,-84986.6498718412,-84986.6554318461,-84986.660991881,-84986.6665519456,-84986.6721120401,-84986.6776721646,-84986.6832323188,-84986.688792503,-84986.694352717,-84986.6999129609,-84986.7054732347,-84986.7110335385,-84986.716593872,-84986.7221542355,-84986.7277146289,-84986.7332750522,-84986.7388355053,-84986.7443959884,-84986.7499565014,-84986.7555170443,-84986.7610776171,48451.1351919093,48451.1272769519,48451.1193619988,-84986.7833202075,-84986.7888809299,-84986.7944416822,-84986.8000024645,-84986.8055632767,-84986.8111241188,-84986.8166849909,-84986.8222458929,-84986.8278068249,7485.37844660968,7485.38793239396,7485.39741812947,7485.40690381623,7485.41638945424,7485.42587504351,7485.43536058402,7485.44484607579,7485.45433151882,7485.46381691312,7485.47330225869,-84986.8945403451,7485.49227280365,7485.50175800305,7485.51124315374,7485.52072825571,7485.53021330897,7485.53969831353,-84986.9334702253,7485.55866817654,7485.56815303499,7485.57763784475,7485.58712260582,7485.59660731821,7485.60609198191,7485.61557659693,7485.62506116328,7485.63454568096,7485.64403014997,7485.65351457032,7485.66299894201,7485.67248326504,7485.68196753942
-84986.572034906,-84986.5775944932,-84986.5831541101,-84986.588713757,-84986.5942734336,-84986.5998331401,-84986.6053928764,-84986.6109526425,-84986.6165124385,-84986.6220722643,-84986.62763212,-84986.6331920055,-84986.6387519209,-84986.6443118661,48451.3014069954,48451.2934919487,48451.2855769063,48451.2776618681,48451.2697468342,48451.2618318046,48451.2539167792,48451.2460017581,48451.2380867413,48451.2301717287,48451.2222567204,48451.2143417163,48451.2064267165,48451.1985117209,48451.1905967296,48451.1826817426,48451.1747667598,48451.1668517812,48451.1589368068,48451.1510218368,48451.1431068709,271442.4872989,271442.490783522,271442.494268152,48451.1114470499,48451.1035321052,48451.0956171648,48451.0877022285,48451.0797872965,48451.0718723687,48451.0639574452,48451.0560425258,48451.0481276107,-84986.8333677868,-84986.8389287786,-84986.8444898004,-84986.8500508522,-84986.8556119339,-84986.8611730456,-84986.8667341873,-84986.8722953589,-84986.8778565605,-84986.883417792,-84986.8889790536,48450.9531489584,-84986.9001016666,-84986.9056630181,-84986.9112243996,-84986.916785811,-84986.9223472524,-84986.9279087238,48450.8977450244,-84986.9390317567,-84986.9445933182,-84986.9501549096,-84986.9557165311,-84986.9612781825,-84986.966839864,-84986.9724015755,-84986.977963317,-84986.9835250886,-84986.9890868902,-84986.9946487218,-84987.0002105834,-84987.0057724751,-84987.0113343967
48451.4122180978,48451.4043029912,48451.396387889,48451.3884727909,48451.3805576972,48451.3726426078,48451.3647275227,48451.3568124418,48451.3488973652,48451.3409822929,48451.3330672248,48451.325152161,48451.3172371016,48451.3093220463,271442.414123676,271442.417608131,271442.421092593,271442.424577064,271442.428061543,271442.43154603,271442.435030524,271442.438515027,271442.441999538,271442.445484056,271442.448968583,271442.452453117,271442.45593766,271442.45942221,271442.462906768,271442.466391335,271442.469875909,271442.473360491,271442.476845081,271442.48032968,271442.483814286,244677.857161585,244677.859502068,244677.861842555,271442.49775279,271442.501237435,271442.504722089,271442.508206751,271442.511691421,271442.515176099,271442.518660784,271442.522145478,271442.525630179,48451.0402126998,48451.0322977932,48451.0243828907,48451.0164679925,48451.0085530985,48451.0006382087,48450.9927233231,48450.9848084418,48450.9768935646,48450.9689786917,48450.9610638229,271442.567447218,48450.9452340981,48450.937319242,48450.92940439,48450.9214895423,48450.9135746988,48450.9056598595,271442.591841019,48450.8898301934,48450.8819153667,48450.8740005441,48450.8660857258,48450.8581709116,48450.8502561016,48450.8423412959,48450.8344264943,48450.8265116969,48450.8185969037,48450.8106821146,48450.8027673298,48450.7948525491,48450.7869377726
271442.365342144,271442.368826488,271442.372310839,271442.375795198,271442.379279565,271442.382763941,271442.386248324,271442.389732715,271442.393217114,271442.396701521,271442.400185936,271442.403670359,271442.40715479,271442.410639229,244677.808012245,244677.810352654,244677.812693067,244677.815033484,244677.817373904,244677.819714328,244677.822054755,244677.824395185,244677.82673562,244677.829076057,244677.831416499,244677.833756943,244677.836097392,244677.838437843,244677.840778299,244677.843118758,244677.84545922,244677.847799686,244677.850140155,244677.852480628,244677.854821105,-54691.3766578226,-54691.3775214535,-54691.3783851047,244677.864183046,244677.86652354,244677.868864038,244677.871204539,244677.873545044,244677.875885552,244677.878226064,244677.880566579,244677.882907098,271442.529114889,271442.532599606,271442.536084332,271442.539569065,271442.543053806,271442.546538556,271442.550023313,271442.553508078,271442.556992851,271442.560477632,271442.563962421,244677.910993599,271442.570932023,271442.574416836,271442.577901656,271442.581386485,271442.584871322,271442.588356166,244677.927377627,271442.595325879,271442.598810748,271442.602295624,271442.605780508,271442.609265401,271442.612750301,271442.616235209,271442.619720125,271442.623205049,271442.626689981,271442.630174921,271442.633659869,271442.637144824,271442.640629788
244677.775246879,244677.77758724,244677.779927604,244677.782267971,244677.784608342,244677.786948717,244677.789289095,244677.791629476,244677.793969861,244677.796310249,244677.798650641,244677.800991037,244677.803331436,244677.805671839,-54691.358526281,-54691.3593894841,-54691.3602527075,-54691.3611159512,-54691.3619792154,-54691.3628424999,-54691.3637058048,-54691.36456913,-54691.3654324756,-54691.3662958416,-54691.367159228,-54691.3680226347,-54691.3688860619,-54691.3697495093,-54691.3706129772,-54691.3714764654,-54691.372339974,-54691.373203503,-54691.3740670524,-54691.3749306221,-54691.3757942122,NaN,NaN,NaN,-54691.3792487763,-54691.3801124683,-54691.3809761806,-54691.3818399133,-54691.3827036664,-54691.3835674399,-54691.3844312337,-54691.3852950479,-54691.3861588825,244677.88524762,244677.887588146,244677.889928675,244677.892269208,244677.894609745,244677.896950285,244677.899290828,244677.901631375,244677.903971926,244677.90631248,244677.908653038,-54691.3965264869,244677.913334164,244677.915674732,244677.918015304,244677.92035588,244677.922696459,244677.925037041,-54691.4025756112,244677.929718217,244677.93205881,244677.934399407,244677.936740007,244677.939080611,244677.941421218,244677.943761829,244677.946102443,244677.948443061,244677.950783683,244677.953124308,244677.955464936,244677.957805569,244677.960146204
-54691.3464435775,-54691.3473064954,-54691.3481694336,-54691.3490323922,-54691.3498953711,-54691.3507583704,-54691.3516213901,-54691.3524844302,-54691.3533474906,-54691.3542105715,-54691.3550736726,-54691.3559367942,-54691.3567999361,-54691.3576630984,NaN,NaN,NaN,NaN,NaN,NaN,NaN,NaN,NaN,NaN,NaN,NaN,NaN,NaN,NaN,NaN,NaN,NaN,NaN,NaN,NaN,NaN,NaN,NaN,NaN,NaN,NaN,NaN,NaN,NaN,NaN,NaN,NaN,-54691.3870227375,-54691.3878866128,-54691.3887505085,-54691.3896144246,-54691.3904783611,-54691.3913423179,-54691.3922062951,-54691.3930702927,-54691.3939343107,-54691.3947983491,-54691.3956624078,NaN,-54691.3973905864,-54691.3982547062,-54691.3991188464,-54691.3999830071,-54691.400847188,-54691.4017113894,NaN,-54691.4034398533,-54691.4043041158,-54691.4051683987,-54691.4060327019,-54691.4068970255,-54691.4077613696,-54691.408625734,-54691.4094901187,-54691.4103545239,-54691.4112189494,-54691.4120833953,-54691.4129478616,-54691.4138123483,-54691.4146768554
